digraph Tree {
node [shape=box, style="filled, rounded", color="black", fontname=helvetica] ;
edge [fontname=helvetica] ;
0 [label="t07 <= -0.43\nfriedman_mse = 0.88\nsamples = 38234\nvalue = 0.0", fillcolor="#f0b88f"] ;
1 [label="sunglint_angle <= -0.88\nfriedman_mse = 0.81\nsamples = 16016\nvalue = 0.23", fillcolor="#eda774"] ;
0 -> 1 [labeldistance=2.5, labelangle=45, headlabel="True"] ;
2 [label="t14 <= -0.18\nfriedman_mse = 0.44\nsamples = 4111\nvalue = 0.44", fillcolor="#e9965a"] ;
1 -> 2 ;
3 [label="ref3 <= 0.86\nfriedman_mse = 0.31\nsamples = 3265\nvalue = 0.51", fillcolor="#e89152"] ;
2 -> 3 ;
4 [label="ref3 <= -0.62\nfriedman_mse = 0.28\nsamples = 3046\nvalue = 0.53", fillcolor="#e89050"] ;
3 -> 4 ;
5 [label="friedman_mse = 0.63\nsamples = 305\nvalue = -0.4", fillcolor="#f7d6be"] ;
4 -> 5 ;
6 [label="friedman_mse = 0.23\nsamples = 2741\nvalue = -0.78", fillcolor="#fcf3ec"] ;
4 -> 6 ;
7 [label="meant07 <= 0.13\nfriedman_mse = 0.76\nsamples = 219\nvalue = 0.24", fillcolor="#eda673"] ;
3 -> 7 ;
8 [label="friedman_mse = 0.66\nsamples = 201\nvalue = -0.39", fillcolor="#f6d5bd"] ;
7 -> 8 ;
9 [label="friedman_mse = 0.74\nsamples = 18\nvalue = 0.67", fillcolor="#e6853f"] ;
7 -> 9 ;
10 [label="t07 <= -0.49\nfriedman_mse = 0.85\nsamples = 846\nvalue = 0.18", fillcolor="#eeaa7a"] ;
2 -> 10 ;
11 [label="t14 <= 0.99\nfriedman_mse = 0.81\nsamples = 720\nvalue = 0.25", fillcolor="#eca572"] ;
10 -> 11 ;
12 [label="friedman_mse = 0.79\nsamples = 685\nvalue = -0.3", fillcolor="#f5cfb3"] ;
11 -> 12 ;
13 [label="friedman_mse = 0.78\nsamples = 35\nvalue = 0.4", fillcolor="#ea995f"] ;
11 -> 13 ;
14 [label="meant07 <= 0.18\nfriedman_mse = 0.92\nsamples = 126\nvalue = -0.19", fillcolor="#f3c7a6"] ;
10 -> 14 ;
15 [label="friedman_mse = 0.86\nsamples = 103\nvalue = 0.33", fillcolor="#eb9f68"] ;
14 -> 15 ;
16 [label="friedman_mse = 0.86\nsamples = 23\nvalue = -0.36", fillcolor="#f6d3b9"] ;
14 -> 16 ;
17 [label="t07 <= -0.93\nfriedman_mse = 0.92\nsamples = 11905\nvalue = 0.15", fillcolor="#eeac7d"] ;
1 -> 17 ;
18 [label="sdt14 <= -0.18\nfriedman_mse = 0.59\nsamples = 1170\nvalue = 0.4", fillcolor="#ea9a60"] ;
17 -> 18 ;
19 [label="meandt <= -0.57\nfriedman_mse = 0.28\nsamples = 444\nvalue = 0.58", fillcolor="#e78c4a"] ;
18 -> 19 ;
20 [label="friedman_mse = 0.81\nsamples = 59\nvalue = -0.24", fillcolor="#f4caac"] ;
19 -> 20 ;
21 [label="friedman_mse = 0.17\nsamples = 385\nvalue = -0.85", fillcolor="#fef8f4"] ;
19 -> 21 ;
22 [label="t07_t14 <= -0.49\nfriedman_mse = 0.74\nsamples = 726\nvalue = 0.29", fillcolor="#eca26d"] ;
18 -> 22 ;
23 [label="friedman_mse = 0.5\nsamples = 413\nvalue = -0.56", fillcolor="#f9e2d2"] ;
22 -> 23 ;
24 [label="friedman_mse = 0.96\nsamples = 313\nvalue = -0.06", fillcolor="#f1bd97"] ;
22 -> 24 ;
25 [label="sunglint_angle <= 1.15\nfriedman_mse = 0.94\nsamples = 10735\nvalue = 0.13", fillcolor="#eeae80"] ;
17 -> 25 ;
26 [label="sddt <= -0.17\nfriedman_mse = 0.93\nsamples = 8658\nvalue = 0.16", fillcolor="#eeac7d"] ;
25 -> 26 ;
27 [label="friedman_mse = 0.88\nsamples = 4322\nvalue = -0.24", fillcolor="#f4caab"] ;
26 -> 27 ;
28 [label="friedman_mse = 0.96\nsamples = 4336\nvalue = -0.09", fillcolor="#f2be9a"] ;
26 -> 28 ;
29 [label="meant14 <= 0.08\nfriedman_mse = 0.99\nsamples = 2077\nvalue = -0.0", fillcolor="#f0b890"] ;
25 -> 29 ;
30 [label="friedman_mse = 0.89\nsamples = 589\nvalue = -0.21", fillcolor="#f4c8a9"] ;
29 -> 30 ;
31 [label="friedman_mse = 1.01\nsamples = 1488\nvalue = 0.09", fillcolor="#efb185"] ;
29 -> 31 ;
32 [label="t14 <= -0.21\nfriedman_mse = 0.86\nsamples = 22218\nvalue = -0.16", fillcolor="#f3c4a2"] ;
0 -> 32 [labeldistance=2.5, labelangle=-45, headlabel="False"] ;
33 [label="sunglint_angle <= -1.06\nfriedman_mse = 0.89\nsamples = 5838\nvalue = 0.05", fillcolor="#efb489"] ;
32 -> 33 ;
34 [label="ref4 <= -0.4\nfriedman_mse = 0.38\nsamples = 941\nvalue = 0.48", fillcolor="#e99457"] ;
33 -> 34 ;
35 [label="t14 <= -0.33\nfriedman_mse = 0.9\nsamples = 97\nvalue = 0.01", fillcolor="#f0b78e"] ;
34 -> 35 ;
36 [label="friedman_mse = 0.84\nsamples = 80\nvalue = -0.19", fillcolor="#f3c6a5"] ;
35 -> 36 ;
37 [label="friedman_mse = 0.54\nsamples = 17\nvalue = 0.72", fillcolor="#e58139"] ;
35 -> 37 ;
38 [label="sunglint_angle <= -1.25\nfriedman_mse = 0.29\nsamples = 844\nvalue = 0.53", fillcolor="#e89050"] ;
34 -> 38 ;
39 [label="friedman_mse = 0.06\nsamples = 481\nvalue = -0.94", fillcolor="#ffffff"] ;
38 -> 39 ;
40 [label="friedman_mse = 0.58\nsamples = 363\nvalue = -0.5", fillcolor="#f8ddca"] ;
38 -> 40 ;
41 [label="ref3 <= 1.4\nfriedman_mse = 0.95\nsamples = 4897\nvalue = -0.03", fillcolor="#f1ba92"] ;
33 -> 41 ;
42 [label="t07 <= -0.16\nfriedman_mse = 0.95\nsamples = 3841\nvalue = -0.09", fillcolor="#f2bf9a"] ;
41 -> 42 ;
43 [label="friedman_mse = 1.0\nsamples = 1324\nvalue = -0.04", fillcolor="#f1bb94"] ;
42 -> 43 ;
44 [label="friedman_mse = 0.92\nsamples = 2517\nvalue = 0.17", fillcolor="#eeab7b"] ;
42 -> 44 ;
45 [label="sunglint_angle <= 0.17\nfriedman_mse = 0.87\nsamples = 1056\nvalue = 0.21", fillcolor="#eda876"] ;
41 -> 45 ;
46 [label="friedman_mse = 0.94\nsamples = 613\nvalue = -0.07", fillcolor="#f1bd97"] ;
45 -> 46 ;
47 [label="friedman_mse = 0.69\nsamples = 443\nvalue = -0.46", fillcolor="#f7dbc6"] ;
45 -> 47 ;
48 [label="t07 <= -0.09\nfriedman_mse = 0.83\nsamples = 16380\nvalue = -0.24", fillcolor="#f4caac"] ;
32 -> 48 ;
49 [label="t07_t14 <= -0.69\nfriedman_mse = 0.96\nsamples = 5899\nvalue = -0.1", fillcolor="#f2bf9b"] ;
48 -> 49 ;
50 [label="t14 <= 2.25\nfriedman_mse = 0.97\nsamples = 949\nvalue = 0.14", fillcolor="#eeae7f"] ;
49 -> 50 ;
51 [label="friedman_mse = 0.97\nsamples = 909\nvalue = -0.11", fillcolor="#f2c09c"] ;
50 -> 51 ;
52 [label="friedman_mse = 0.35\nsamples = 40\nvalue = -0.81", fillcolor="#fdf5ef"] ;
50 -> 52 ;
53 [label="meandt <= 0.57\nfriedman_mse = 0.95\nsamples = 4950\nvalue = -0.14", fillcolor="#f3c2a0"] ;
49 -> 53 ;
54 [label="friedman_mse = 0.94\nsamples = 4659\nvalue = 0.17", fillcolor="#eeab7b"] ;
53 -> 54 ;
55 [label="friedman_mse = 0.95\nsamples = 291\nvalue = -0.24", fillcolor="#f4caab"] ;
53 -> 55 ;
56 [label="ref3 <= 0.44\nfriedman_mse = 0.73\nsamples = 10481\nvalue = -0.32", fillcolor="#f5d0b5"] ;
48 -> 56 ;
57 [label="t07 <= 0.5\nfriedman_mse = 0.68\nsamples = 8190\nvalue = -0.36", fillcolor="#f6d3ba"] ;
56 -> 57 ;
58 [label="friedman_mse = 0.8\nsamples = 4201\nvalue = 0.3", fillcolor="#eca16c"] ;
57 -> 58 ;
59 [label="friedman_mse = 0.53\nsamples = 3989\nvalue = 0.54", fillcolor="#e88f4e"] ;
57 -> 59 ;
60 [label="sunglint_angle <= 0.87\nfriedman_mse = 0.89\nsamples = 2291\nvalue = -0.16", fillcolor="#f3c4a3"] ;
56 -> 60 ;
61 [label="friedman_mse = 0.79\nsamples = 1656\nvalue = 0.31", fillcolor="#eba06a"] ;
60 -> 61 ;
62 [label="friedman_mse = 0.99\nsamples = 635\nvalue = -0.15", fillcolor="#f3c4a2"] ;
60 -> 62 ;
}